float sequential_dense_BiasAdd_ReadVariableOp[16] = {
    0.000000, 0.000000, 0.378651, -0.722167, 0.090947, 0.857654, 0.000000, 0.000000,
    0.000000, 1.184620, -0.208794, 0.000000, 0.000000, -0.011825, 0.000000, 0.000000
};

float sequential_dense_MatMul[16][1] = {
    { -0.121809 }, { -0.392950 }, { 0.196248 }, { 0.695623 }, { 0.143358 }, { -0.064396 },
    { -0.180214 }, { -0.054398 }, { -0.461908 }, { 0.405570 }, { 0.279627 }, { -0.514145 },
    { -0.420967 }, { 0.625606 }, { -0.374308 }, { -0.331323 }
};

float sequential_dense_1_BiasAdd_ReadVariableOp[16] = {
    0.000000, 0.502743, 0.407674, -0.255480, 0.000000, 0.174909, 0.000000, -0.241646,
    0.070217, -0.430939, 0.597222, 0.000000, 0.220263, 0.544770, -0.194663, -0.071306
};

float sequential_dense_1_MatMul[16][16] = {
    { 0.002723, 0.189835, 0.413368, -0.182400, 0.200780, -0.197180, -0.061389, -0.129589,
     -0.124844, -0.429609, -0.349027, 0.346842, 0.368458, 0.182696, 0.238758, -0.232399 },
    { -0.025780, 0.196237, 0.033693, -0.607458, 0.071363, 0.401083, -0.398952, -0.124836,
     -0.378929, 0.263999, -0.369892, 0.341089, -0.268121, 0.161359, -0.134216, 0.364993 },
    { 0.142575, -0.180089, 0.356418, -0.577832, -0.393827, 0.805680, -0.263570, -0.016273,
     0.302584, 0.456614, 0.219707, -0.219237, 0.157988, -0.503008, 0.333701, -0.145064 },
    { -0.207399, -0.358896, 0.179721, 0.459338, 0.202705, -0.397044, 0.373283, -0.306370,
     0.317580, -0.185068, 0.297726, -0.270794, -0.222271, -0.175274, -0.235413, -0.035397 },
    { 0.070935, -0.285618, -0.119501, 0.373934, -0.032086, -0.429516, 0.378659, 0.063912,
     0.104233, -0.007707, 0.145001, 0.039342, 0.033644, -0.349920, -0.133487, -0.381616 },
    { 0.003397, 0.113206, 0.020028, 0.115727, -0.005095, 0.423184, -0.001983, 0.271070,
     -0.073909, -0.183504, -0.094914, -0.060690, 0.237155, 0.281156, -0.043908, 0.147538 },
    { -0.394048, -0.290120, -0.022124, 0.255339, -0.350652, -0.426835, 0.292678, 0.049579,
     0.257255, -0.367347, 0.094500, 0.396354, -0.334358, -0.075872, -0.342684, 0.418138 },
    { -0.022124, 0.001883, 0.121943, 0.524087, -0.398018, -0.430949, -0.317999, -0.245058,
     -0.206159, -0.232975, 0.374992, 0.012929, 0.012024, -0.202943, -0.109085, 0.130561 },
    { 0.118794, 0.204045, -0.165720, 0.144934, 0.121375, 0.079787, -0.294155, -0.098834,
     0.083943, 0.273119, -0.048777, -0.400595, 0.402990, 0.382293, -0.429660, 0.019646 },
    { 0.025414, -0.349925, -0.021378, 0.402300, -0.193558, -0.452354, -0.307869, 0.191180,
     -0.215512, -0.562378, 0.407239, 0.006060, -0.217820, 0.374559, -0.062002, -0.278090 },
    { 0.028216, 0.257704, 0.186707, -0.425943, -0.005116, 0.894546, 0.370285, 0.256983,
     0.045721, -0.024414, -0.068049, 0.284132, -0.145586, -0.640227, 0.326493, 0.426744 },
    { -0.245311, 0.383572, 0.162267, -0.113945, 0.053049, -0.015474, 0.337766, -0.036668,
     -0.069501, -0.365906, -0.083709, 0.258559, 0.057924, 0.400658, 0.007972, -0.347195 },
    { -0.399802, -0.224287, 0.206145, -0.132689, 0.249152, 0.816656, 0.128045, -0.300073,
     -0.156370, 0.474320, -0.191088, 0.331629, 0.051378, -0.395683, -0.105912, 0.348086 },
    { 0.367352, 0.318326, -0.241442, -0.248917, -0.246842, 0.794130, 0.407261, 0.013025,
     -0.326474, -0.115935, 0.557507, 0.015669, 0.134001, -0.685372, 0.086510, 0.257187 },
    { -0.091316, -0.089776, -0.158309,  0.262905, 0.187603, -0.407001, 0.116848, -0.429513,
     -0.268528, 0.246914, -0.147269, 0.265590, -0.280760, 0.258617, -0.418187, -0.089545 },
    { 0.219148, 0.287917, -0.263945, -0.329842, 0.169190, 0.042185, -0.205195, -0.378084,
     -0.004827, 0.333239, 0.309830, -0.178857, -0.172417, 0.057067, -0.314845, -0.396804 }
};

float sequential_dense_2_BiasAdd_ReadVariableOp[1] = { -0.160132 };

float sequential_dense_2_MatMul[1][16] = {
    { -0.471725, 1.204008, 1.258900, 0.358552, 0.110613, -0.262657, 0.330926, 0.880584,
     -0.184853, 1.081398, -0.737362, 0.312019, -0.850341, -0.930935, 0.136279, 0.111213 }
};
